<?xml version="1.0"?>
<!---

Copyright (c) 2012, Falkor Systems, Inc.  All rights reserved.

Redistribution and use in source and binary forms, with or without
modification, are permitted provided that the following conditions are
met:

Redistributions of source code must retain the above copyright notice,
this list of conditions and the following disclaimer.  Redistributions
in binary form must reproduce the above copyright notice, this list of
conditions and the following disclaimer in the documentation and/or
other materials provided with the distribution.  THIS SOFTWARE IS
PROVIDED BY THE COPYRIGHT HOLDERS AND CONTRIBUTORS "AS IS" AND ANY
EXPRESS OR IMPLIED WARRANTIES, INCLUDING, BUT NOT LIMITED TO, THE
IMPLIED WARRANTIES OF MERCHANTABILITY AND FITNESS FOR A PARTICULAR
PURPOSE ARE DISCLAIMED. IN NO EVENT SHALL THE COPYRIGHT HOLDER OR
CONTRIBUTORS BE LIABLE FOR ANY DIRECT, INDIRECT, INCIDENTAL, SPECIAL,
EXEMPLARY, OR CONSEQUENTIAL DAMAGES (INCLUDING, BUT NOT LIMITED TO,
PROCUREMENT OF SUBSTITUTE GOODS OR SERVICES; LOSS OF USE, DATA, OR
PROFITS; OR BUSINESS INTERRUPTION) HOWEVER CAUSED AND ON ANY THEORY OF
LIABILITY, WHETHER IN CONTRACT, STRICT LIABILITY, OR TORT (INCLUDING
NEGLIGENCE OR OTHERWISE) ARISING IN ANY WAY OUT OF THE USE OF THIS
SOFTWARE, EVEN IF ADVISED OF THE POSSIBILITY OF SUCH DAMAGE.

-->
<opencv_storage>
<cascade>
  <stageType>BOOST</stageType>
  <featureType>LBP</featureType>
  <height>24</height>
  <width>24</width>
  <stageParams>
    <boostType>GAB</boostType>
    <minHitRate>9.9500000476837158e-01</minHitRate>
    <maxFalseAlarm>1.0000000149011612e-01</maxFalseAlarm>
    <weightTrimRate>9.4999999999999996e-01</weightTrimRate>
    <maxDepth>1</maxDepth>
    <maxWeakCount>100</maxWeakCount></stageParams>
  <featureParams>
    <maxCatCount>256</maxCatCount>
    <featSize>1</featSize></featureParams>
  <stageNum>9</stageNum>
  <stages>
    <!-- stage 0 -->
    <_>
      <maxWeakCount>12</maxWeakCount>
      <stageThreshold>-9.6866416931152344e-01</stageThreshold>
      <weakClassifiers>
        <_>
          <internalNodes>
            0 -1 80 -1 -32901 577708051 858989106 -1414529109
            -1149284293 599204523 1073685115</internalNodes>
          <leafValues>
            -7.5549393892288208e-01 8.2937151193618774e-01</leafValues></_>
        <_>
          <internalNodes>
            0 -1 62 -8652550 -100939574 1769988338 -8918325 -1166869782
            -887373726 -405537329 -547357173</internalNodes>
          <leafValues>
            -6.2115222215652466e-01 8.2154601812362671e-01</leafValues></_>
        <_>
          <internalNodes>
            0 -1 47 -67120345 1259862843 -1659517535 2146924479
            1194019087 50530335 2113896447 -262177</internalNodes>
          <leafValues>
            -5.7009106874465942e-01 6.3723248243331909e-01</leafValues></_>
        <_>
          <internalNodes>
            0 -1 60 -487394050 1934809331 -1043865393 2039207071
            -1605698850 1918033130 -1837216310 1131626507</internalNodes>
          <leafValues>
            -6.2439638376235962e-01 5.0573414564132690e-01</leafValues></_>
        <_>
          <internalNodes>
            0 -1 123 -817110910 -81549269 -1342234563 2066952762
            158171531 228267788 65672 -335576885</internalNodes>
          <leafValues>
            -4.8807188868522644e-01 5.4858809709548950e-01</leafValues></_>
        <_>
          <internalNodes>
            0 -1 174 -412091614 11155756 1366515728 -1623195854
            1929084743 1869867183 1420814145 -638059137</internalNodes>
          <leafValues>
            -6.6032320261001587e-01 3.8437193632125854e-01</leafValues></_>
        <_>
          <internalNodes>
            0 -1 87 -183507282 1404510434 498990655 -608747801
            1939536874 -2089032991 -1510608471 -1014898257</internalNodes>
          <leafValues>
            -4.8054805397987366e-01 5.1114970445632935e-01</leafValues></_>
        <_>
          <internalNodes>
            0 -1 17 -778125972 827543672 -1828484721 327649229
            1126345422 34323411 -1306525365 326623471</internalNodes>
          <leafValues>
            -5.5441778898239136e-01 4.1986075043678284e-01</leafValues></_>
        <_>
          <internalNodes>
            0 -1 152 -807667728 -553445243 -653545447 -777448822
            -2125819431 17764373 1558288520 1091558410</internalNodes>
          <leafValues>
            -5.3378838300704956e-01 4.0211179852485657e-01</leafValues></_>
        <_>
          <internalNodes>
            0 -1 46 1535102895 1017451711 280027206 1860122554
            2113094157 1807829327 1041451391 -293636233</internalNodes>
          <leafValues>
            -5.1620692014694214e-01 4.1504970192909241e-01</leafValues></_>
        <_>
          <internalNodes>
            0 -1 176 1911698400 -1010450218 1706552167 38659189
            -1580403969 -2137309039 1631910292 8627488</internalNodes>
          <leafValues>
            -6.9646590948104858e-01 2.9679375886917114e-01</leafValues></_>
        <_>
          <internalNodes>
            0 -1 54 -358369354 -264056195 -104196796 827487096
            1613805790 838969499 1347371329 -78387489</internalNodes>
          <leafValues>
            -5.3302675485610962e-01 3.7948817014694214e-01</leafValues></_></weakClassifiers></_>
    <!-- stage 1 -->
    <_>
      <maxWeakCount>17</maxWeakCount>
      <stageThreshold>-8.2827365398406982e-01</stageThreshold>
      <weakClassifiers>
        <_>
          <internalNodes>
            0 -1 51 -524550 -33578776 -570949889 -33 -68944646
            -101465936 -513 -5520758</internalNodes>
          <leafValues>
            -5.0456619262695312e-01 7.8111982345581055e-01</leafValues></_>
        <_>
          <internalNodes>
            0 -1 67 -36307129 -524961 862927835 939202651 2143198763
            -1146398449 731331243 2147431423</internalNodes>
          <leafValues>
            -6.8303817510604858e-01 5.7247579097747803e-01</leafValues></_>
        <_>
          <internalNodes>
            0 -1 131 -1223139331 -44255008 -1038620193 -40988163
            -100795919 -640042615 -77007120 -1078459216</internalNodes>
          <leafValues>
            -5.3962403535842896e-01 5.2057319879531860e-01</leafValues></_>
        <_>
          <internalNodes>
            0 -1 8 -67375105 2004350651 1904199119 2037088268 -78464054
            2054391179 -335869045 1396952139</internalNodes>
          <leafValues>
            -5.3532058000564575e-01 5.0643932819366455e-01</leafValues></_>
        <_>
          <internalNodes>
            0 -1 71 -360779989 -84490882 2107244543 -2292432 -2133872705
            -646731221 -2046906434 50398775</internalNodes>
          <leafValues>
            -6.0416120290756226e-01 3.6631587147712708e-01</leafValues></_>
        <_>
          <internalNodes>
            0 -1 145 -187696342 615170538 2128209408 -1561343164
            2012703507 1140558595 -170989818 -134237770</internalNodes>
          <leafValues>
            -5.2354979515075684e-01 4.1745129227638245e-01</leafValues></_>
        <_>
          <internalNodes>
            0 -1 55 1851450106 -78395557 -1822862598 1397965522
            -1840539512 -750532581 193890510 -12606721</internalNodes>
          <leafValues>
            -4.8109874129295349e-01 4.4470471143722534e-01</leafValues></_>
        <_>
          <internalNodes>
            0 -1 185 -8393470 -1146885582 -1073794445 2103671799
            -1347747926 170112331 255050399 -605041701</internalNodes>
          <leafValues>
            -3.6407315731048584e-01 5.4525285959243774e-01</leafValues></_>
        <_>
          <internalNodes>
            0 -1 98 -270536913 2130666287 1845438243 2147169065
            1323190069 1862818346 603891711 -877920789</internalNodes>
          <leafValues>
            -3.9839762449264526e-01 4.7171553969383240e-01</leafValues></_>
        <_>
          <internalNodes>
            0 -1 178 1785391959 1933839686 1713598974 823442718
            725280940 -579389377 993706988 36867774</internalNodes>
          <leafValues>
            -5.6812155246734619e-01 3.2902783155441284e-01</leafValues></_>
        <_>
          <internalNodes>
            0 -1 28 -860950874 -536934437 1853796341 1878990795
            1440739052 1593788246 -865550341 -562381121</internalNodes>
          <leafValues>
            -3.7764275074005127e-01 4.8269787430763245e-01</leafValues></_>
        <_>
          <internalNodes>
            0 -1 122 -293945671 -717547937 -287657473 975871133
            -1333789763 1530645231 166035708 -1149326696</internalNodes>
          <leafValues>
            -4.0596547722816467e-01 4.5787364244461060e-01</leafValues></_>
        <_>
          <internalNodes>
            0 -1 221 -134422597 -275775631 -451 -184553487 -948046010
            -1611268361 -26751980 -168035211</internalNodes>
          <leafValues>
            -3.4128385782241821e-01 4.9240741133689880e-01</leafValues></_>
        <_>
          <internalNodes>
            0 -1 25 -814025490 2132995693 -472012088 1600238326
            -1150046774 1886486347 -704656918 -549342465</internalNodes>
          <leafValues>
            -3.8515907526016235e-01 4.4615489244461060e-01</leafValues></_>
        <_>
          <internalNodes>
            0 -1 150 673771008 -1101039851 1497192318 2136940911
            -1029720835 -475839923 1504048316 68003251</internalNodes>
          <leafValues>
            -6.3129162788391113e-01 2.6797509193420410e-01</leafValues></_>
        <_>
          <internalNodes>
            0 -1 172 -51381470 -1462785622 -1266423800 -268438362
            1906537282 1436588173 -73733545 -151520270</internalNodes>
          <leafValues>
            -4.2710876464843750e-01 3.9833086729049683e-01</leafValues></_>
        <_>
          <internalNodes>
            0 -1 49 -1349000302 2133573960 1265488352 -1210634043
            29728981 -1582575427 26538357 1710576051</internalNodes>
          <leafValues>
            -5.6454420089721680e-01 3.1431898474693298e-01</leafValues></_></weakClassifiers></_>
    <!-- stage 2 -->
    <_>
      <maxWeakCount>20</maxWeakCount>
      <stageThreshold>-5.7665479183197021e-01</stageThreshold>
      <weakClassifiers>
        <_>
          <internalNodes>
            0 -1 79 -34017 -9011329 -285213441 858978874 -100675585
            2138275711 -805307153 2071722218</internalNodes>
          <leafValues>
            -5.1060575246810913e-01 6.8993246555328369e-01</leafValues></_>
        <_>
          <internalNodes>
            0 -1 192 -273694941 -16516317 -649861129 -9184398 193968047
            246407337 232734942 1541136558</internalNodes>
          <leafValues>
            -5.5777943134307861e-01 5.1364803314208984e-01</leafValues></_>
        <_>
          <internalNodes>
            0 -1 59 -403313669 -3440134 1561940467 -11054895 -1916762955
            -541194613 535216117 525665525</internalNodes>
          <leafValues>
            -6.1520099639892578e-01 3.8773417472839355e-01</leafValues></_>
        <_>
          <internalNodes>
            0 -1 70 2011127723 797945247 2043632990 1541224669
            2147174983 2144287835 2122579963 -2147397</internalNodes>
          <leafValues>
            -5.8112770318984985e-01 3.7730127573013306e-01</leafValues></_>
        <_>
          <internalNodes>
            0 -1 112 -79497536 -144538404 476049662 1997716178
            1330878943 -1828482934 1154334972 -612371714</internalNodes>
          <leafValues>
            -6.0342556238174438e-01 3.5716661810874939e-01</leafValues></_>
        <_>
          <internalNodes>
            0 -1 99 1063253390 789575531 326555507 2145325598 1772057895
            788254459 2112470767 -1074824193</internalNodes>
          <leafValues>
            -5.8131384849548340e-01 2.9301151633262634e-01</leafValues></_>
        <_>
          <internalNodes>
            0 -1 18 -551813125 2065397759 1937744001 1661720643 -8683314
            191578169 -44070456 1497615083</internalNodes>
          <leafValues>
            -4.6153205633163452e-01 3.9002266526222229e-01</leafValues></_>
        <_>
          <internalNodes>
            0 -1 200 -662715309 -715885753 1794960286 1618104414
            -880437048 -147685246 -1978991668 -1573678405</internalNodes>
          <leafValues>
            -4.3732395768165588e-01 3.8970786333084106e-01</leafValues></_>
        <_>
          <internalNodes>
            0 -1 92 -875397896 -10849061 -614401817 1532197330
            -632562979 1515081245 1585283163 1562237166</internalNodes>
          <leafValues>
            -5.2269476652145386e-01 3.3766591548919678e-01</leafValues></_>
        <_>
          <internalNodes>
            0 -1 216 -526577 -202642461 -30705917 1395911922 -17307837
            -37355700 -160041920 -151521678</internalNodes>
          <leafValues>
            -3.5864526033401489e-01 4.7633928060531616e-01</leafValues></_>
        <_>
          <internalNodes>
            0 -1 106 1810890637 -212575105 452951547 1601371858
            1199116237 -629179017 66574580 -10641174</internalNodes>
          <leafValues>
            -3.6833155155181885e-01 4.4411742687225342e-01</leafValues></_>
        <_>
          <internalNodes>
            0 -1 126 -622854366 2144599022 328328038 1931606570
            1633674823 189679458 1653195501 -489500726</internalNodes>
          <leafValues>
            -3.9441502094268799e-01 4.0095874667167664e-01</leafValues></_>
        <_>
          <internalNodes>
            0 -1 116 1549492388 -93903561 1372716503 1999962685
            -1012741444 -36371653 -1559038478 302056223</internalNodes>
          <leafValues>
            -5.4083824157714844e-01 2.9420900344848633e-01</leafValues></_>
        <_>
          <internalNodes>
            0 -1 186 -982631645 -295239873 -335564823 -214761686
            100384171 233832315 1166000380 -208674130</internalNodes>
          <leafValues>
            -3.4264707565307617e-01 4.5091426372528076e-01</leafValues></_>
        <_>
          <internalNodes>
            0 -1 13 1819204394 -889728569 2129339294 2059969741 4242218
            -1329945694 1902050204 1393119503</internalNodes>
          <leafValues>
            -5.8307641744613647e-01 2.5570896267890930e-01</leafValues></_>
        <_>
          <internalNodes>
            0 -1 128 -1364726994 696766670 1350811648 1792510340
            1706898549 188885707 -1544301200 -219159690</internalNodes>
          <leafValues>
            -5.2789694070816040e-01 2.6866337656974792e-01</leafValues></_>
        <_>
          <internalNodes>
            0 -1 149 1072309680 132890852 -1560158915 1587267166
            2125724671 354029707 1509077306 1342948352</internalNodes>
          <leafValues>
            -6.5587103366851807e-01 2.1369877457618713e-01</leafValues></_>
        <_>
          <internalNodes>
            0 -1 158 -1947599424 252211995 1141459312 534595869
            -1114645589 -1953983326 123672859 1862239227</internalNodes>
          <leafValues>
            -4.9092006683349609e-01 2.8820398449897766e-01</leafValues></_>
        <_>
          <internalNodes>
            0 -1 83 670728138 2142240767 587168507 1027629242
            -1611702290 -1376944514 1023126526 -134759429</internalNodes>
          <leafValues>
            -3.0318287014961243e-01 4.7574785351753235e-01</leafValues></_>
        <_>
          <internalNodes>
            0 -1 26 -352338426 -9974177 1795156730 1933639798 -319099669
            -680100027 -805450662 -8659110</internalNodes>
          <leafValues>
            -3.4681934118270874e-01 4.3791836500167847e-01</leafValues></_></weakClassifiers></_>
    <!-- stage 3 -->
    <_>
      <maxWeakCount>23</maxWeakCount>
      <stageThreshold>-6.4597821235656738e-01</stageThreshold>
      <weakClassifiers>
        <_>
          <internalNodes>
            0 -1 110 -459268 -67582209 -1 2138799871 -96735489 -71698709
            -605037057 -67112961</internalNodes>
          <leafValues>
            -4.6433317661285400e-01 6.6013211011886597e-01</leafValues></_>
        <_>
          <internalNodes>
            0 -1 6 -134217729 -201593714 1293641061 -705174969
            -607207441 997901311 -10547697 1936935951</internalNodes>
          <leafValues>
            -5.0033426284790039e-01 4.8879188299179077e-01</leafValues></_>
        <_>
          <internalNodes>
            0 -1 114 1073741739 791149995 800554739 2147375199
            1610579839 2147211516 536861691 -1025</internalNodes>
          <leafValues>
            -5.4847079515457153e-01 3.6550068855285645e-01</leafValues></_>
        <_>
          <internalNodes>
            0 -1 197 -268438020 -69749420 -313527585 265266023
            -230821397 -741367113 -532943958 8583074</internalNodes>
          <leafValues>
            -5.6077176332473755e-01 3.1213954091072083e-01</leafValues></_>
        <_>
          <internalNodes>
            0 -1 142 -1612046411 2012442495 -268435721 2137257727
            -1946239058 -1082163202 805304575 -204477746</internalNodes>
          <leafValues>
            -2.9582270979881287e-01 5.4581892490386963e-01</leafValues></_>
        <_>
          <internalNodes>
            0 -1 146 499855359 -145943725 -251244041 -539544611
            -1950614597 -138628179 -1267930127 -1162341195</internalNodes>
          <leafValues>
            -4.3557414412498474e-01 3.2314667105674744e-01</leafValues></_>
        <_>
          <internalNodes>
            0 -1 52 1943205104 2080106206 -2650547 2136203864 -92565346
            1932776799 -201368113 1886620254</internalNodes>
          <leafValues>
            -5.4715722799301147e-01 2.8560253977775574e-01</leafValues></_>
        <_>
          <internalNodes>
            0 -1 215 -684723421 1997780837 -388560623 -586093452
            515890946 -1430597614 693005060 -528047</internalNodes>
          <leafValues>
            -3.7779507040977478e-01 3.7652158737182617e-01</leafValues></_>
        <_>
          <internalNodes>
            0 -1 12 -17899090 -1826962742 831911378 1204510954 14680061
            -1987464481 1429995380 22008823</internalNodes>
          <leafValues>
            -5.5843460559844971e-01 2.5367680191993713e-01</leafValues></_>
        <_>
          <internalNodes>
            0 -1 160 -825299986 -510665618 -1014962144 -68886432
            1610340700 667390474 1183838268 -134745098</internalNodes>
          <leafValues>
            -4.6528780460357666e-01 2.8907486796379089e-01</leafValues></_>
        <_>
          <internalNodes>
            0 -1 156 -3735629 2133262199 -1359511563 1915888186
            -1145045115 -1614842002 253723901 -2127186</internalNodes>
          <leafValues>
            -3.0068239569664001e-01 4.5298591256141663e-01</leafValues></_>
        <_>
          <internalNodes>
            0 -1 56 -42282270 -1152717474 -1378821222 993536619
            -1206130164 -1202758833 466593986 2071936127</internalNodes>
          <leafValues>
            -5.3413850069046021e-01 2.5093239545822144e-01</leafValues></_>
        <_>
          <internalNodes>
            0 -1 36 -152044289 -1540625218 -297816287 -1359032679
            -1610633731 -838926337 -1099694657 -251723793</internalNodes>
          <leafValues>
            -2.9085043072700500e-01 4.7503343224525452e-01</leafValues></_>
        <_>
          <internalNodes>
            0 -1 175 -128557860 1999755357 -1361978660 2136044253
            982146056 -617247955 313174688 706822143</internalNodes>
          <leafValues>
            -4.4335663318634033e-01 3.1087720394134521e-01</leafValues></_>
        <_>
          <internalNodes>
            0 -1 9 -296165702 -1884306804 29366739 268243601 1106956678
            -1989933898 629155798 435490903</internalNodes>
          <leafValues>
            -5.4043805599212646e-01 2.4025167524814606e-01</leafValues></_>
        <_>
          <internalNodes>
            0 -1 202 -1360598526 -679515305 -1047478593 1408638751
            -1010048345 -777338717 -794299743 -1842243666</internalNodes>
          <leafValues>
            -3.6282590031623840e-01 3.4857589006423950e-01</leafValues></_>
        <_>
          <internalNodes>
            0 -1 19 -545350037 -632773464 1373476949 863961122
            -1968795669 973664922 1079925213 -1607129370</internalNodes>
          <leafValues>
            -3.5786959528923035e-01 3.6090624332427979e-01</leafValues></_>
        <_>
          <internalNodes>
            0 -1 103 1752329762 -1233933011 1563676114 -533397204
            -1071912571 -1148462517 1944182718 162530235</internalNodes>
          <leafValues>
            -5.2630090713500977e-01 2.4542585015296936e-01</leafValues></_>
        <_>
          <internalNodes>
            0 -1 90 -1161290628 -3185697 985843669 2066227946 -554275843
            1402934043 -18216835 -531157714</internalNodes>
          <leafValues>
            -4.7309112548828125e-01 2.8361031413078308e-01</leafValues></_>
        <_>
          <internalNodes>
            0 -1 44 -114954613 2137750303 1133228232 2131438107
            -258225142 2052283208 697075803 1801976379</internalNodes>
          <leafValues>
            -5.1259821653366089e-01 2.6245719194412231e-01</leafValues></_>
        <_>
          <internalNodes>
            0 -1 180 -661788924 -212662449 -225587265 125062718
            228287136 1104348359 -250638116 52864300</internalNodes>
          <leafValues>
            -5.7622826099395752e-01 2.3269656300544739e-01</leafValues></_>
        <_>
          <internalNodes>
            0 -1 188 -2024810966 773530467 -1937383264 -359670776
            1742146374 1694696482 1670861429 -471502089</internalNodes>
          <leafValues>
            -4.8922112584114075e-01 2.5846755504608154e-01</leafValues></_>
        <_>
          <internalNodes>
            0 -1 120 80160535 1719821311 -1005322273 -339317930
            -1984955851 -591939199 663794673 87033777</internalNodes>
          <leafValues>
            -6.4679616689682007e-01 1.8937498331069946e-01</leafValues></_></weakClassifiers></_>
    <!-- stage 4 -->
    <_>
      <maxWeakCount>27</maxWeakCount>
      <stageThreshold>-6.8928295373916626e-01</stageThreshold>
      <weakClassifiers>
        <_>
          <internalNodes>
            0 -1 63 -218169370 -134876571 -79691777 -134217985
            -1863463730 -37105785 -134217733 -552613937</internalNodes>
          <leafValues>
            -3.8467893004417419e-01 6.5838575363159180e-01</leafValues></_>
        <_>
          <internalNodes>
            0 -1 84 2147483647 2129395195 1071339515 1070594543
            2078834539 2145015519 -72352833 -7345493</internalNodes>
          <leafValues>
            -4.4537821412086487e-01 5.0489515066146851e-01</leafValues></_>
        <_>
          <internalNodes>
            0 -1 102 -38285091 891495743 1507465726 1073345759 -67133192
            -1078458433 -1734296836 143671231</internalNodes>
          <leafValues>
            -4.9981319904327393e-01 3.7654694914817810e-01</leafValues></_>
        <_>
          <internalNodes>
            0 -1 95 -890315234 1919320703 -577511444 -143466566
            -2145678449 -79740866 -637540100 -2097156</internalNodes>
          <leafValues>
            -4.8020705580711365e-01 3.4424257278442383e-01</leafValues></_>
        <_>
          <internalNodes>
            0 -1 139 -563087134 -138821473 -329518885 -214785318
            -1152663621 -1657014899 1239406778 -79693061</internalNodes>
          <leafValues>
            -3.5504904389381409e-01 4.3190032243728638e-01</leafValues></_>
        <_>
          <internalNodes>
            0 -1 205 -15737341 -13443534 -577643120 -404359568 420739843
            -1164208078 724011975 -8969</internalNodes>
          <leafValues>
            -3.8511863350868225e-01 3.6421781778335571e-01</leafValues></_>
        <_>
          <internalNodes>
            0 -1 27 -1903243774 -69318065 -1471056798 1810981759
            -452991868 1946763292 -1534532133 1755552286</internalNodes>
          <leafValues>
            -4.5893743634223938e-01 2.9886949062347412e-01</leafValues></_>
        <_>
          <internalNodes>
            0 -1 159 -270536926 -1494236917 2060972064 -1562671040
            1753972294 87851286 -208981662 -134227220</internalNodes>
          <leafValues>
            -4.7146934270858765e-01 2.5556468963623047e-01</leafValues></_>
        <_>
          <internalNodes>
            0 -1 97 -34629742 -25219201 -268435457 2067348351
            -1094733951 -134783105 251653887 -134247489</internalNodes>
          <leafValues>
            -2.8714093565940857e-01 4.6882650256156921e-01</leafValues></_>
        <_>
          <internalNodes>
            0 -1 72 -96690504 -202307 758644697 1836255961 -1466131274
            -1985167359 -1549746249 218373911</internalNodes>
          <leafValues>
            -4.2205014824867249e-01 3.0385160446166992e-01</leafValues></_>
        <_>
          <internalNodes>
            0 -1 100 -575318229 789435652 2011403617 2146298871
            1263291435 978970763 973695227 955224235</internalNodes>
          <leafValues>
            -5.9253543615341187e-01 2.0173139870166779e-01</leafValues></_>
        <_>
          <internalNodes>
            0 -1 65 -293866954 1887104575 1946152956 -223164756
            -495468577 -1573158913 -1065541699 -209756914</internalNodes>
          <leafValues>
            -3.4157523512840271e-01 3.7406599521636963e-01</leafValues></_>
        <_>
          <internalNodes>
            0 -1 184 -87295104 -143589618 -939143872 1997570451
            194771883 26249473 1203718236 1665102056</internalNodes>
          <leafValues>
            -5.0163322687149048e-01 2.5381654500961304e-01</leafValues></_>
        <_>
          <internalNodes>
            0 -1 104 -655721732 -112477714 -808520875 863701578
            1750376861 1478754129 61311199 -10509669</internalNodes>
          <leafValues>
            -3.7480977177619934e-01 3.1276941299438477e-01</leafValues></_>
        <_>
          <internalNodes>
            0 -1 43 -724579794 1934092927 -2142960840 1901235148
            -2001739763 326795359 -2130081460 309591007</internalNodes>
          <leafValues>
            -5.6923216581344604e-01 2.0189608633518219e-01</leafValues></_>
        <_>
          <internalNodes>
            0 -1 23 -554704281 -216082690 1951376334 -311906166
            -999376945 -1340357761 -1061453860 1669289214</internalNodes>
          <leafValues>
            -3.6600676178932190e-01 3.1791460514068604e-01</leafValues></_>
        <_>
          <internalNodes>
            0 -1 199 -355872004 526900248 -1738765699 -1884146757
            -129894227 186361275 -1337867813 51636017</internalNodes>
          <leafValues>
            -4.5848867297172546e-01 2.5503975152969360e-01</leafValues></_>
        <_>
          <internalNodes>
            0 -1 167 -1051284957 -551796450 1880089249 995279772
            600308733 54749753 1533133036 1671159938</internalNodes>
          <leafValues>
            -4.1311222314834595e-01 2.6759061217308044e-01</leafValues></_>
        <_>
          <internalNodes>
            0 -1 209 1285163057 1962231415 -327462177 2010437598
            1586384456 -100069262 1261108164 -1091384811</internalNodes>
          <leafValues>
            -4.0709617733955383e-01 2.7918800711631775e-01</leafValues></_>
        <_>
          <internalNodes>
            0 -1 88 170486690 -95272673 -1050425932 1607545778
            -2134201932 -660750065 361462741 1000604035</internalNodes>
          <leafValues>
            -5.2564167976379395e-01 2.2569665312767029e-01</leafValues></_>
        <_>
          <internalNodes>
            0 -1 21 2128041688 1598593514 1217179795 1221132650
            -126880870 -1017622125 -1895179574 1163240676</internalNodes>
          <leafValues>
            -4.5339891314506531e-01 2.4849329888820648e-01</leafValues></_>
        <_>
          <internalNodes>
            0 -1 115 -357568726 -1469910261 -1676880670 -361905710
            -1315544233 1168943178 -1306958958 -138739974</internalNodes>
          <leafValues>
            -4.0890666842460632e-01 2.9097232222557068e-01</leafValues></_>
        <_>
          <internalNodes>
            0 -1 2 713721576 -710172624 362533165 -1754324942
            -1302598659 -500576043 1754011928 -975289020</internalNodes>
          <leafValues>
            -4.6934756636619568e-01 2.4658605456352234e-01</leafValues></_>
        <_>
          <internalNodes>
            0 -1 190 1116627490 -1108402673 -211244290 -1265481637
            -2018532639 294323223 -171182928 51427258</internalNodes>
          <leafValues>
            -5.0565314292907715e-01 2.2193054854869843e-01</leafValues></_>
        <_>
          <internalNodes>
            0 -1 124 -1395415 -67666321 -268438289 2071689582
            -1891633233 1056669567 1723719167 -748940598</internalNodes>
          <leafValues>
            -3.2072681188583374e-01 3.5869863629341125e-01</leafValues></_>
        <_>
          <internalNodes>
            0 -1 164 -529446 -731388041 1652260734 1983330174 2126151260
            -202082441 405927678 -1154794533</internalNodes>
          <leafValues>
            -2.5939366221427917e-01 4.6351820230484009e-01</leafValues></_>
        <_>
          <internalNodes>
            0 -1 133 1561324420 1601578119 1162206591 1492645679
            -2134643467 1804861863 2064499117 16969611</internalNodes>
          <leafValues>
            -4.6939614415168762e-01 2.4121038615703583e-01</leafValues></_></weakClassifiers></_>
    <!-- stage 5 -->
    <_>
      <maxWeakCount>30</maxWeakCount>
      <stageThreshold>-6.0103821754455566e-01</stageThreshold>
      <weakClassifiers>
        <_>
          <internalNodes>
            0 -1 203 -1356124382 -14504030 -134253577 -525454 789232554
            262716810 1341079807 1610611455</internalNodes>
          <leafValues>
            -4.1282233595848083e-01 6.0425925254821777e-01</leafValues></_>
        <_>
          <internalNodes>
            0 -1 109 608120823 -53249 -3073 -8568833 -1879068737
            -570630145 -1275658753 -1078458887</internalNodes>
          <leafValues>
            -3.5757118463516235e-01 5.1733571290969849e-01</leafValues></_>
        <_>
          <internalNodes>
            0 -1 15 -8388613 -3218490 -1375734022 -8441545 -973078571
            -722477057 1174270965 -704646721</internalNodes>
          <leafValues>
            -3.6646628379821777e-01 4.5276418328285217e-01</leafValues></_>
        <_>
          <internalNodes>
            0 -1 155 -774897869 -237543465 -989495097 2075490709
            -1618479203 -1081388033 1876937711 1939833518</internalNodes>
          <leafValues>
            -3.7390926480293274e-01 3.7747886776924133e-01</leafValues></_>
        <_>
          <internalNodes>
            0 -1 85 671088555 602267231 -41030320 268159965 2002087777
            1907977210 -632564922 -72353542</internalNodes>
          <leafValues>
            -5.4622751474380493e-01 2.5680515170097351e-01</leafValues></_>
        <_>
          <internalNodes>
            0 -1 220 -10486913 -1576492 -754874339 -7866945 -1145054413
            -41413073 -391121308 -11401</internalNodes>
          <leafValues>
            -3.3370700478553772e-01 3.6286512017250061e-01</leafValues></_>
        <_>
          <internalNodes>
            0 -1 50 -869335130 1932166599 1300862917 -686073655
            -2132115541 -1558454292 1280046854 1138739087</internalNodes>
          <leafValues>
            -4.9568638205528259e-01 2.5319069623947144e-01</leafValues></_>
        <_>
          <internalNodes>
            0 -1 191 -3941885 -36932966 -711502985 1566513869 789246643
            520770898 256363210 1941569674</internalNodes>
          <leafValues>
            -4.4731333851814270e-01 2.6885932683944702e-01</leafValues></_>
        <_>
          <internalNodes>
            0 -1 132 -100801795 1970603127 576575578 41778719 -49297480
            -1689029233 403483324 34721066</internalNodes>
          <leafValues>
            -4.8986715078353882e-01 2.2025370597839355e-01</leafValues></_>
        <_>
          <internalNodes>
            0 -1 113 -1076364533 1984842056 -2118102496 835908494
            -1114858692 327781435 194762940 -404750338</internalNodes>
          <leafValues>
            -3.7387037277221680e-01 3.1107783317565918e-01</leafValues></_>
        <_>
          <internalNodes>
            0 -1 111 -401218013 1411499315 37551614 1409405950
            -2076247105 -1831796723 2030630806 456135483</internalNodes>
          <leafValues>
            -4.9599990248680115e-01 2.2771486639976501e-01</leafValues></_>
        <_>
          <internalNodes>
            0 -1 204 -606339301 -76088776 -419988889 1588723580
            -1086603979 -2004449230 527688710 -213008184</internalNodes>
          <leafValues>
            -2.6841565966606140e-01 4.3005836009979248e-01</leafValues></_>
        <_>
          <internalNodes>
            0 -1 45 -1637907956 -296821908 -2050637754 1662009822
            -1595035286 2071554633 160267276 2067783408</internalNodes>
          <leafValues>
            -5.4998475313186646e-01 2.0968410372734070e-01</leafValues></_>
        <_>
          <internalNodes>
            0 -1 135 -1027932488 1608048784 -297546369 386066509
            -1092370763 129183770 1240352861 1925040328</internalNodes>
          <leafValues>
            -5.0572085380554199e-01 2.1448606252670288e-01</leafValues></_>
        <_>
          <internalNodes>
            0 -1 170 -1891704053 -385482302 1779944608 -301030402
            778112326 1294696450 -153563899 -151521293</internalNodes>
          <leafValues>
            -4.0381461381912231e-01 2.7424499392509460e-01</leafValues></_>
        <_>
          <internalNodes>
            0 -1 53 1279415650 1313662181 -1823415096 1667934661
            274783946 1891270690 -719454723 1191478031</internalNodes>
          <leafValues>
            -6.8980097770690918e-01 1.5795753896236420e-01</leafValues></_>
        <_>
          <internalNodes>
            0 -1 0 791343395 -1379745134 -787618911 -1962458212
            1789629181 -1648104657 1153258357 -142610063</internalNodes>
          <leafValues>
            -3.7424489855766296e-01 2.8136557340621948e-01</leafValues></_>
        <_>
          <internalNodes>
            0 -1 33 -27406366 525863187 -327062326 1865668633 581660431
            1265246699 -20223041 -275033957</internalNodes>
          <leafValues>
            -4.3531087040901184e-01 2.5001278519630432e-01</leafValues></_>
        <_>
          <internalNodes>
            0 -1 86 -766064350 -571538840 1511488340 1817363958
            -1609709391 -16154492 10677456 151061415</internalNodes>
          <leafValues>
            -5.0498652458190918e-01 2.0910230278968811e-01</leafValues></_>
        <_>
          <internalNodes>
            0 -1 107 -1026651801 1985272158 1949002470 1883428810
            -393646387 -61794247 -1035261731 839837608</internalNodes>
          <leafValues>
            -4.8883187770843506e-01 2.1617899835109711e-01</leafValues></_>
        <_>
          <internalNodes>
            0 -1 14 -1376419859 1055456749 1895496679 2146762473
            -79955078 -1722223006 -144704289 -683086359</internalNodes>
          <leafValues>
            -2.3694868385791779e-01 4.7873318195343018e-01</leafValues></_>
        <_>
          <internalNodes>
            0 -1 169 -1432820702 -1176507396 52267200 -539539155
            914864736 706406410 689425130 1394590408</internalNodes>
          <leafValues>
            -4.3100041151046753e-01 2.6344975829124451e-01</leafValues></_>
        <_>
          <internalNodes>
            0 -1 37 -737840149 675332229 -1235889816 -1614127664
            1512514497 -772210534 -100981387 -1343020811</internalNodes>
          <leafValues>
            -4.2498624324798584e-01 2.6350191235542297e-01</leafValues></_>
        <_>
          <internalNodes>
            0 -1 212 -1526225247 1898218295 -1257496287 816582966
            101425853 -2007432428 1302849561 -2134920802</internalNodes>
          <leafValues>
            -3.4851911664009094e-01 3.2294464111328125e-01</leafValues></_>
        <_>
          <internalNodes>
            0 -1 31 -928005118 -421374642 44626752 1248605190 2034492391
            -615956477 1013528940 -328073718</internalNodes>
          <leafValues>
            -3.9595964550971985e-01 2.8574982285499573e-01</leafValues></_>
        <_>
          <internalNodes>
            0 -1 153 -666176984 2081555374 -267741180 453617541
            -1086025291 382438051 656109999 -238992728</internalNodes>
          <leafValues>
            -4.1099035739898682e-01 2.7229732275009155e-01</leafValues></_>
        <_>
          <internalNodes>
            0 -1 41 -1165761618 928030412 588501652 227162314
            -2073301082 -846362470 93978622 523179995</internalNodes>
          <leafValues>
            -3.2348275184631348e-01 3.4091278910636902e-01</leafValues></_>
        <_>
          <internalNodes>
            0 -1 174 -740346624 172774950 1394455824 256833786
            1810674265 2064224411 -757141008 -138770245</internalNodes>
          <leafValues>
            -5.2358871698379517e-01 2.0423077046871185e-01</leafValues></_>
        <_>
          <internalNodes>
            0 -1 211 -486597081 -9142425 872234867 -71385217 -1094779196
            -46825515 -1166119780 -1288450308</internalNodes>
          <leafValues>
            -2.9260119795799255e-01 3.8832029700279236e-01</leafValues></_>
        <_>
          <internalNodes>
            0 -1 74 -823086340 294832331 472744347 53037257 -17021884
            282132549 1246634654 1684220527</internalNodes>
          <leafValues>
            -5.6060361862182617e-01 1.9141758978366852e-01</leafValues></_></weakClassifiers></_>
    <!-- stage 6 -->
    <_>
      <maxWeakCount>31</maxWeakCount>
      <stageThreshold>-5.5782520771026611e-01</stageThreshold>
      <weakClassifiers>
        <_>
          <internalNodes>
            0 -1 73 -621281306 -202120478 -8321 -2129 -1058279441
            -134224670 -1884422161 -553390197</internalNodes>
          <leafValues>
            -2.9747900366783142e-01 6.0350108146667480e-01</leafValues></_>
        <_>
          <internalNodes>
            0 -1 4 -3803149 -179046226 -1534787543 -772330906 -201335813
            -644946753 -77653089 2038106223</internalNodes>
          <leafValues>
            -4.1756433248519897e-01 4.2947989702224731e-01</leafValues></_>
        <_>
          <internalNodes>
            0 -1 69 2095045615 1876509663 1897617295 1541096671
            1883723078 2141724698 -1952842753 -1049890</internalNodes>
          <leafValues>
            -4.8592835664749146e-01 2.9527562856674194e-01</leafValues></_>
        <_>
          <internalNodes>
            0 -1 165 -1941979254 -915352449 1981930707 1459642291
            252689293 467116503 1145815292 2075894458</internalNodes>
          <leafValues>
            -5.2170503139495850e-01 2.5240713357925415e-01</leafValues></_>
        <_>
          <internalNodes>
            0 -1 38 -15532118 -5987614 -103820848 -3182141 27904411
            -577830595 1032694615 1070010743</internalNodes>
          <leafValues>
            -4.8071113228797913e-01 2.7084431052207947e-01</leafValues></_>
        <_>
          <internalNodes>
            0 -1 96 -599077690 -547453601 -899949866 863113426
            -1692686967 846434334 1236080888 2138568920</internalNodes>
          <leafValues>
            -5.8802318572998047e-01 1.8542298674583435e-01</leafValues></_>
        <_>
          <internalNodes>
            0 -1 219 -585368661 -69340513 -1064513226 -67382829
            -53775803 -88504167 2028808784 -127471276</internalNodes>
          <leafValues>
            -3.7388771772384644e-01 3.1627181172370911e-01</leafValues></_>
        <_>
          <internalNodes>
            0 -1 94 -895712242 -229337250 1935050160 -747443250
            -1402005767 -1827928885 -850460499 -75667284</internalNodes>
          <leafValues>
            -4.3888178467750549e-01 2.3247051239013672e-01</leafValues></_>
        <_>
          <internalNodes>
            0 -1 136 -28508186 -368941980 533159645 584317167
            -1061049351 648225445 703244536 142803083</internalNodes>
          <leafValues>
            -4.2765462398529053e-01 2.6924353837966919e-01</leafValues></_>
        <_>
          <internalNodes>
            0 -1 198 1536938070 -675092649 -1794348675 1968057692
            -82650472 -1022029795 -352092228 -1556893892</internalNodes>
          <leafValues>
            -3.8262596726417542e-01 2.7891641855239868e-01</leafValues></_>
        <_>
          <internalNodes>
            0 -1 161 -268505298 764273799 554969728 1000164250 535460675
            885697664 -657675549 2146434959</internalNodes>
          <leafValues>
            -4.9735394120216370e-01 2.2243288159370422e-01</leafValues></_>
        <_>
          <internalNodes>
            0 -1 108 -149561954 -853682981 475127135 24716026 966052746
            -1513079956 999237768 -2219302</internalNodes>
          <leafValues>
            -3.3647164702415466e-01 3.4261891245841980e-01</leafValues></_>
        <_>
          <internalNodes>
            0 -1 68 -810550358 1861170027 1658775690 1399779754
            1820247828 1981791035 209646330 -1171530838</internalNodes>
          <leafValues>
            -3.3139300346374512e-01 3.3730694651603699e-01</leafValues></_>
        <_>
          <internalNodes>
            0 -1 148 -430176764 -958962409 1511053020 1535061215
            -1567954500 -80619501 2040069052 271058236</internalNodes>
          <leafValues>
            -6.4002460241317749e-01 1.8265943229198456e-01</leafValues></_>
        <_>
          <internalNodes>
            0 -1 76 -361011343 -214961735 1996485552 -88115787
            -398590076 1646100322 -246023544 -1042319409</internalNodes>
          <leafValues>
            -2.5866371393203735e-01 4.1152125597000122e-01</leafValues></_>
        <_>
          <internalNodes>
            0 -1 24 -1911189984 -613318278 1191829705 1074455330
            -587556129 -355791461 -1996729859 1074741767</internalNodes>
          <leafValues>
            -3.8346764445304871e-01 2.7054923772811890e-01</leafValues></_>
        <_>
          <internalNodes>
            0 -1 82 -268560734 -536871937 -268437761 1938518107
            -1360015473 -346196129 787438301 -73692264</internalNodes>
          <leafValues>
            -2.4385027587413788e-01 4.2990970611572266e-01</leafValues></_>
        <_>
          <internalNodes>
            0 -1 141 -1866553051 -78740958 834984922 -1286416770
            -2085309451 2143117983 -928036659 1905539822</internalNodes>
          <leafValues>
            -4.3154984712600708e-01 2.5422117114067078e-01</leafValues></_>
        <_>
          <internalNodes>
            0 -1 130 -1487159954 575467936 1132794416 764400898
            2139778171 1945141458 696479047 -337663605</internalNodes>
          <leafValues>
            -5.5633860826492310e-01 1.7501638829708099e-01</leafValues></_>
        <_>
          <internalNodes>
            0 -1 189 -1108675336 1259184230 956758231 371693862
            844296911 186811051 -473272189 908301817</internalNodes>
          <leafValues>
            -4.5289778709411621e-01 2.1796366572380066e-01</leafValues></_>
        <_>
          <internalNodes>
            0 -1 162 -1344946030 -168492249 -1059204010 2001892093
            -1201176388 -1114095567 411613938 -1204741361</internalNodes>
          <leafValues>
            -3.1818836927413940e-01 3.2746791839599609e-01</leafValues></_>
        <_>
          <internalNodes>
            0 -1 11 -281857033 1063714806 -138988183 1055880934
            -1275079457 -6336382 -2627040 -820031104</internalNodes>
          <leafValues>
            -2.7128469944000244e-01 3.8271778821945190e-01</leafValues></_>
        <_>
          <internalNodes>
            0 -1 20 1808170674 1228796892 -644315129 253438011
            -142636018 2069777181 -1395964475 444680843</internalNodes>
          <leafValues>
            -4.6449393033981323e-01 2.2819073498249054e-01</leafValues></_>
        <_>
          <internalNodes>
            0 -1 140 244255527 -431038369 -82780678 -1293364289
            408675179 -1866157901 840659781 502626558</internalNodes>
          <leafValues>
            -4.6351847052574158e-01 2.2325637936592102e-01</leafValues></_>
        <_>
          <internalNodes>
            0 -1 57 184453643 -25199043 -1208045648 1896017916
            -251879987 -365740161 -1418232065 -10748042</internalNodes>
          <leafValues>
            -2.8062367439270020e-01 3.7012109160423279e-01</leafValues></_>
        <_>
          <internalNodes>
            0 -1 187 -598224760 -890496728 21041749 1574240439 129686832
            170299536 169839135 -271736580</internalNodes>
          <leafValues>
            -3.4513077139854431e-01 3.0322873592376709e-01</leafValues></_>
        <_>
          <internalNodes>
            0 -1 129 -305140053 862940846 -274060160 1341781371
            -547499151 784171007 1157059891 -25437187</internalNodes>
          <leafValues>
            -2.4930769205093384e-01 4.1946828365325928e-01</leafValues></_>
        <_>
          <internalNodes>
            0 -1 143 -182597696 -817679050 -397877283 793784611
            -1558601813 -1953664767 261560552 975700138</internalNodes>
          <leafValues>
            -5.1616358757019043e-01 2.1808020770549774e-01</leafValues></_>
        <_>
          <internalNodes>
            0 -1 93 -1497629933 -73477752 -779906815 -770739976
            -1603669076 1086554187 -1744576340 -778085972</internalNodes>
          <leafValues>
            -3.2602527737617493e-01 3.1724736094474792e-01</leafValues></_>
        <_>
          <internalNodes>
            0 -1 66 -171321400 -787613745 228588088 358576783
            -1592724989 662596 28179226 2104148056</internalNodes>
          <leafValues>
            -4.3176031112670898e-01 2.4499899148941040e-01</leafValues></_>
        <_>
          <internalNodes>
            0 -1 217 -1888014569 972799843 -805327125 -204722264
            -8925593 516943717 -134302001 -424482936</internalNodes>
          <leafValues>
            -2.7138885855674744e-01 3.8647636771202087e-01</leafValues></_></weakClassifiers></_>
    <!-- stage 7 -->
    <_>
      <maxWeakCount>31</maxWeakCount>
      <stageThreshold>-5.8538091182708740e-01</stageThreshold>
      <weakClassifiers>
        <_>
          <internalNodes>
            0 -1 34 -5243201 790626303 -1 -65538 1330589007 1299705855
            2147483647 -352452609</internalNodes>
          <leafValues>
            -3.8992184400558472e-01 5.4441064596176147e-01</leafValues></_>
        <_>
          <internalNodes>
            0 -1 119 1068719101 -570671235 -671156323 2067742451
            -1074348099 -14364755 -1628004357 -1081602856</internalNodes>
          <leafValues>
            -3.1132322549819946e-01 5.3807616233825684e-01</leafValues></_>
        <_>
          <internalNodes>
            0 -1 183 -75517133 -788457 -805311113 -1355437249 1039922351
            962525663 1599539927 -68164865</internalNodes>
          <leafValues>
            -3.0573076009750366e-01 4.7823786735534668e-01</leafValues></_>
        <_>
          <internalNodes>
            0 -1 29 -1827018257 -622334465 470405883 1903268851
            -1987477048 -599005106 420076507 1935368175</internalNodes>
          <leafValues>
            -4.0864717960357666e-01 3.2376518845558167e-01</leafValues></_>
        <_>
          <internalNodes>
            0 -1 201 -470823098 -472758409 -469198481 1984836447
            -1038091585 1397951393 -506812786 862103358</internalNodes>
          <leafValues>
            -4.5146781206130981e-01 2.3247960209846497e-01</leafValues></_>
        <_>
          <internalNodes>
            0 -1 78 -1035075028 1879462231 -2024552052 1886553310
            -1475899283 1246040586 -1878230804 2069843438</internalNodes>
          <leafValues>
            -5.5957251787185669e-01 2.1967475116252899e-01</leafValues></_>
        <_>
          <internalNodes>
            0 -1 101 -2008354607 -265809718 -603858863 -1208274879
            -1129676427 -243070840 813937269 336593281</internalNodes>
          <leafValues>
            -5.2215832471847534e-01 1.9786791503429413e-01</leafValues></_>
        <_>
          <internalNodes>
            0 -1 194 -537015282 -1595860513 -802879966 -225591132
            555827270 1883275537 -75404763 -140281612</internalNodes>
          <leafValues>
            -3.9365679025650024e-01 2.6371824741363525e-01</leafValues></_>
        <_>
          <internalNodes>
            0 -1 75 -2009338957 -490534890 1392611984 -56810096
            -2145141840 -2111078197 87159189 1067910079</internalNodes>
          <leafValues>
            -4.2733123898506165e-01 2.4129833281040192e-01</leafValues></_>
        <_>
          <internalNodes>
            0 -1 196 -518282686 -1827564730 -1870495181 -1582284856
            -2085826885 -678958893 -753826376 396870043</internalNodes>
          <leafValues>
            -3.7649396061897278e-01 2.8467851877212524e-01</leafValues></_>
        <_>
          <internalNodes>
            0 -1 42 -475042013 -1465216695 -707767916 -18425830
            1117745319 420413831 -1870201980 -705714027</internalNodes>
          <leafValues>
            -3.3382612466812134e-01 2.9969656467437744e-01</leafValues></_>
        <_>
          <internalNodes>
            0 -1 213 -812253421 -35539150 -13141135 1773386961 118210521
            -1153761481 729373935 -97007297</internalNodes>
          <leafValues>
            -2.6359206438064575e-01 4.1554951667785645e-01</leafValues></_>
        <_>
          <internalNodes>
            0 -1 134 -822088786 2121754219 1933573887 1736326719
            -998281305 1828169719 -1085151668 -1960736822</internalNodes>
          <leafValues>
            -3.1887760758399963e-01 3.3603563904762268e-01</leafValues></_>
        <_>
          <internalNodes>
            0 -1 193 -9437688 -1073823752 587164193 -537432288 263055874
            254799150 456364004 -69217650</internalNodes>
          <leafValues>
            -2.7816626429557800e-01 3.6530548334121704e-01</leafValues></_>
        <_>
          <internalNodes>
            0 -1 138 1117845720 -774530956 773318814 991046741 25735077
            2130711215 1137426472 958199736</internalNodes>
          <leafValues>
            -6.0323071479797363e-01 1.8083757162094116e-01</leafValues></_>
        <_>
          <internalNodes>
            0 -1 127 -423710965 1168895788 1308549792 1136619820
            2013194231 74956799 1467869056 -688135202</internalNodes>
          <leafValues>
            -2.7494540810585022e-01 3.9466446638107300e-01</leafValues></_>
        <_>
          <internalNodes>
            0 -1 61 -564209423 -645512304 344596305 1213870430
            -369044848 -293599230 -2092397896 729002740</internalNodes>
          <leafValues>
            -3.3809760212898254e-01 2.9916024208068848e-01</leafValues></_>
        <_>
          <internalNodes>
            0 -1 48 -107924630 -1757321774 748427333 747111624
            -511059624 -1425163871 -859518688 289755904</internalNodes>
          <leafValues>
            -4.9611485004425049e-01 2.1415004134178162e-01</leafValues></_>
        <_>
          <internalNodes>
            0 -1 179 765278005 -1475866368 -1053584929 -19373864
            -1206744984 -1962115063 -1449805681 -1171759907</internalNodes>
          <leafValues>
            -4.3639224767684937e-01 2.1912133693695068e-01</leafValues></_>
        <_>
          <internalNodes>
            0 -1 77 -1035071215 -607987312 1159155968 1968884816
            -1429245823 1914208265 47919276 611662424</internalNodes>
          <leafValues>
            -5.1870381832122803e-01 2.0652650296688080e-01</leafValues></_>
        <_>
          <internalNodes>
            0 -1 157 -1140850975 -73236570 -1343246349 670530495
            -1145897046 -1683390593 187851134 -269841953</internalNodes>
          <leafValues>
            -3.0275419354438782e-01 3.3923503756523132e-01</leafValues></_>
        <_>
          <internalNodes>
            0 -1 154 -1603557009 -1504661427 277905821 -1294191842
            1091088759 -1735786478 1406988457 -749415442</internalNodes>
          <leafValues>
            -3.3088690042495728e-01 3.1603422760963440e-01</leafValues></_>
        <_>
          <internalNodes>
            0 -1 40 99709120 14518425 -918240956 1629242561 -883858792
            1229043750 -1832758 1912703122</internalNodes>
          <leafValues>
            -5.0289624929428101e-01 1.9619691371917725e-01</leafValues></_>
        <_>
          <internalNodes>
            0 -1 30 -910093141 -253017889 1342443646 -476855813
            -509571446 -1015295416 -1853834363 1669184221</internalNodes>
          <leafValues>
            -3.1807884573936462e-01 3.0657851696014404e-01</leafValues></_>
        <_>
          <internalNodes>
            0 -1 22 886539776 -1999519670 -1786535631 1381540214
            -1601541491 402745372 -666219859 -531430478</internalNodes>
          <leafValues>
            -3.6413905024528503e-01 2.7355167269706726e-01</leafValues></_>
        <_>
          <internalNodes>
            0 -1 91 1086906896 -244695032 924137804 64622850 -1979473269
            321102138 -711374705 1432191388</internalNodes>
          <leafValues>
            -5.7517915964126587e-01 1.6789795458316803e-01</leafValues></_>
        <_>
          <internalNodes>
            0 -1 207 -213394652 -185205660 -176685464 396668526
            -139479585 -1512929998 536073431 -204230482</internalNodes>
          <leafValues>
            -2.3537446558475494e-01 4.3983611464500427e-01</leafValues></_>
        <_>
          <internalNodes>
            0 -1 206 1784144806 2028132933 302417951 578293843
            1669581813 430129167 -752172128 926066194</internalNodes>
          <leafValues>
            -4.5237004756927490e-01 2.3325979709625244e-01</leafValues></_>
        <_>
          <internalNodes>
            0 -1 218 325911303 -1156728361 1724615 2081636555 623968572
            -75071480 -357938439 -801072529</internalNodes>
          <leafValues>
            -3.3444786071777344e-01 3.0093613266944885e-01</leafValues></_>
        <_>
          <internalNodes>
            0 -1 168 -855502687 -1381220334 764248539 -846892988
            -373837047 -2100751864 789132883 501205492</internalNodes>
          <leafValues>
            -4.3820407986640930e-01 2.3660095036029816e-01</leafValues></_>
        <_>
          <internalNodes>
            0 -1 7 -620301826 1091683758 285777951 337420428 -1868952680
            832253605 -1633059564 1121499059</internalNodes>
          <leafValues>
            -4.3466731905937195e-01 2.2976838052272797e-01</leafValues></_></weakClassifiers></_>
    <!-- stage 8 -->
    <_>
      <maxWeakCount>32</maxWeakCount>
      <stageThreshold>-5.3857231140136719e-01</stageThreshold>
      <weakClassifiers>
        <_>
          <internalNodes>
            0 -1 177 -4203465 1429567271 -71303170 1910996798 -121705336
            -270043201 -1170293826 841170847</internalNodes>
          <leafValues>
            -3.4138971567153931e-01 5.4955679178237915e-01</leafValues></_>
        <_>
          <internalNodes>
            0 -1 210 -584075273 -1145331213 -281035329 1068208063
            -268567333 536806911 -823545633 65516475</internalNodes>
          <leafValues>
            -3.7444812059402466e-01 4.1883406043052673e-01</leafValues></_>
        <_>
          <internalNodes>
            0 -1 3 -2231302 -1042574956 -1073084832 -1310777088
            -221846533 -1704013583 1259146095 -210298611</internalNodes>
          <leafValues>
            -3.9929571747779846e-01 3.5884609818458557e-01</leafValues></_>
        <_>
          <internalNodes>
            0 -1 35 -806363153 -859586663 -1369773562 -926356294
            -975200625 -847774037 1333783606 -989932809</internalNodes>
          <leafValues>
            -3.3170229196548462e-01 3.9989402890205383e-01</leafValues></_>
        <_>
          <internalNodes>
            0 -1 173 -268719189 537225611 -2125977312 664531394 12600845
            25886980 -75235323 -69227829</internalNodes>
          <leafValues>
            -3.6362645030021667e-01 3.1829333305358887e-01</leafValues></_>
        <_>
          <internalNodes>
            0 -1 118 -1609486949 -778498046 -805103405 -38076016
            -2096706637 -1918136181 -1828522015 -1349774987</internalNodes>
          <leafValues>
            -4.4936147332191467e-01 2.2995179891586304e-01</leafValues></_>
        <_>
          <internalNodes>
            0 -1 214 -174590960 2031269394 1078002261 -1961856208
            -1995995370 -131415872 946194928 -302689244</internalNodes>
          <leafValues>
            -4.4553422927856445e-01 2.3754547536373138e-01</leafValues></_>
        <_>
          <internalNodes>
            0 -1 105 -1597316538 2013430100 286589630 -250432866
            -1977908331 1879736522 -1592018676 -109291284</internalNodes>
          <leafValues>
            -5.8841693401336670e-01 1.7793998122215271e-01</leafValues></_>
        <_>
          <internalNodes>
            0 -1 121 -961573337 -155048001 -1538014729 -498544154
            -1060076681 -790585280 814408183 47514868</internalNodes>
          <leafValues>
            -4.0153905749320984e-01 2.3772843182086945e-01</leafValues></_>
        <_>
          <internalNodes>
            0 -1 58 -2053817877 535396605 134222303 756042747
            -2004851130 153625676 982026494 1803113418</internalNodes>
          <leafValues>
            -5.0857919454574585e-01 2.0346271991729736e-01</leafValues></_>
        <_>
          <internalNodes>
            0 -1 163 -2004098874 -1823142831 1829094045 4999454
            160622936 -67038065 286822204 1127350303</internalNodes>
          <leafValues>
            -4.6815586090087891e-01 2.1394008398056030e-01</leafValues></_>
        <_>
          <internalNodes>
            0 -1 166 1269511091 -1100025921 -262432 829453052 -838869777
            243269487 1433789390 -217488386</internalNodes>
          <leafValues>
            -2.9350763559341431e-01 3.6405065655708313e-01</leafValues></_>
        <_>
          <internalNodes>
            0 -1 195 1549555916 -715882209 -721298225 -138139626
            1479202954 1542047106 -88944684 -1430574793</internalNodes>
          <leafValues>
            -3.1056833267211914e-01 3.1140658259391785e-01</leafValues></_>
        <_>
          <internalNodes>
            0 -1 125 -1069035226 -1994270651 1333861613 1032411637
            -1646207605 -2004877239 456724685 1073547997</internalNodes>
          <leafValues>
            -5.2163571119308472e-01 2.0113447308540344e-01</leafValues></_>
        <_>
          <internalNodes>
            0 -1 151 -2041517896 -1270826390 -2126156219 419990163
            851754399 1482261291 868861297 1017874444</internalNodes>
          <leafValues>
            -4.4446581602096558e-01 2.1811588108539581e-01</leafValues></_>
        <_>
          <internalNodes>
            0 -1 147 281280933 -679460860 1627394393 1347747934
            -2138971518 -1172666231 -1341487696 -1197844451</internalNodes>
          <leafValues>
            -3.5837769508361816e-01 2.7752816677093506e-01</leafValues></_>
        <_>
          <internalNodes>
            0 -1 39 -551947873 -1859984891 151026514 2077368534
            -1945367560 -1651733622 -2086652111 119337887</internalNodes>
          <leafValues>
            -3.3896553516387939e-01 2.9929244518280029e-01</leafValues></_>
        <_>
          <internalNodes>
            0 -1 10 135677090 -1131797604 -995796687 1095765510
            -1990583856 -1689253168 -2058907955 1733419328</internalNodes>
          <leafValues>
            -6.5719568729400635e-01 1.5302558243274689e-01</leafValues></_>
        <_>
          <internalNodes>
            0 -1 208 -336349417 -614157424 -176735920 -1220610141
            -1883324993 -1171347979 1704353177 -107236214</internalNodes>
          <leafValues>
            -2.4611461162567139e-01 4.3552765250205994e-01</leafValues></_>
        <_>
          <internalNodes>
            0 -1 171 -486619474 -1406926524 -1610333184 -453394431
            193204484 16793600 1805723750 -202709130</internalNodes>
          <leafValues>
            -4.1288104653358459e-01 2.4616880714893341e-01</leafValues></_>
        <_>
          <internalNodes>
            0 -1 117 1120971280 -213047028 -1861994373 2059492046
            -2105489361 1344454800 -802119251 50823840</internalNodes>
          <leafValues>
            -6.3514053821563721e-01 1.5243417024612427e-01</leafValues></_>
        <_>
          <internalNodes>
            0 -1 1 -1541363456 -1467830104 8458261 1002652057 957650149
            -928759680 -511591787 -2064258067</internalNodes>
          <leafValues>
            -4.3819558620452881e-01 2.3774276673793793e-01</leafValues></_>
        <_>
          <internalNodes>
            0 -1 81 135540746 2021393418 84136795 855798926 -1878892516
            1784160288 -1744747386 1511701128</internalNodes>
          <leafValues>
            -6.3243192434310913e-01 1.6187122464179993e-01</leafValues></_>
        <_>
          <internalNodes>
            0 -1 182 -873971616 1772560983 -2097118409 538667599
            -972971603 329943706 -527769447 592527362</internalNodes>
          <leafValues>
            -6.1341816186904907e-01 1.5088626742362976e-01</leafValues></_>
        <_>
          <internalNodes>
            0 -1 89 1641337636 1360158762 83904628 1206360243
            -1041071072 -83504887 -1977292548 979728119</internalNodes>
          <leafValues>
            -4.5597064495086670e-01 2.2211803495883942e-01</leafValues></_>
        <_>
          <internalNodes>
            0 -1 16 299379314 1080131596 22005327 -1061044208 1899639562
            2033721361 -589816562 1611694692</internalNodes>
          <leafValues>
            -5.7523709535598755e-01 1.7470079660415649e-01</leafValues></_>
        <_>
          <internalNodes>
            0 -1 181 -2067321185 -756652065 -147649 1652305855
            -940572742 -1686681737 -168168394 -1166995521</internalNodes>
          <leafValues>
            -2.4236191809177399e-01 4.4323772192001343e-01</leafValues></_>
        <_>
          <internalNodes>
            0 -1 144 -139526611 2046722043 -1560335391 2071669578
            -698495251 -1476460689 452934344 -213355826</internalNodes>
          <leafValues>
            -2.6740047335624695e-01 3.6786919832229614e-01</leafValues></_>
        <_>
          <internalNodes>
            0 -1 5 -1769865918 -1039296064 571877056 -1992863264
            -2138335071 -575635449 1342212224 1038840147</internalNodes>
          <leafValues>
            -4.8970332741737366e-01 1.9686819612979889e-01</leafValues></_>
        <_>
          <internalNodes>
            0 -1 64 217573139 -160235906 2146951095 2057855784
            -419981607 1768996795 -151214119 -588355633</internalNodes>
          <leafValues>
            -2.5802144408226013e-01 3.9834696054458618e-01</leafValues></_>
        <_>
          <internalNodes>
            0 -1 32 1300887426 580501665 -385781495 420499921 8940105
            411056649 583105610 2013794304</internalNodes>
          <leafValues>
            -6.9610726833343506e-01 1.5761479735374451e-01</leafValues></_>
        <_>
          <internalNodes>
            0 -1 137 -1465961760 -1211334431 -1673407680 1091168265
            714834796 428429708 143534619 1216720396</internalNodes>
          <leafValues>
            -4.8650687932968140e-01 2.0626716315746307e-01</leafValues></_></weakClassifiers></_></stages>
  <features>
    <_>
      <rect>
        0 0 1 1</rect></_>
    <_>
      <rect>
        0 0 1 3</rect></_>
    <_>
      <rect>
        0 0 2 4</rect></_>
    <_>
      <rect>
        0 0 2 5</rect></_>
    <_>
      <rect>
        0 0 2 6</rect></_>
    <_>
      <rect>
        0 0 3 2</rect></_>
    <_>
      <rect>
        0 0 3 6</rect></_>
    <_>
      <rect>
        0 0 4 4</rect></_>
    <_>
      <rect>
        0 0 4 7</rect></_>
    <_>
      <rect>
        0 0 5 2</rect></_>
    <_>
      <rect>
        0 0 6 6</rect></_>
    <_>
      <rect>
        0 0 8 8</rect></_>
    <_>
      <rect>
        0 1 4 3</rect></_>
    <_>
      <rect>
        0 1 6 4</rect></_>
    <_>
      <rect>
        0 1 7 6</rect></_>
    <_>
      <rect>
        0 2 3 2</rect></_>
    <_>
      <rect>
        0 2 3 5</rect></_>
    <_>
      <rect>
        0 2 4 5</rect></_>
    <_>
      <rect>
        0 2 4 7</rect></_>
    <_>
      <rect>
        0 3 2 4</rect></_>
    <_>
      <rect>
        0 3 4 7</rect></_>
    <_>
      <rect>
        0 3 6 6</rect></_>
    <_>
      <rect>
        0 4 2 4</rect></_>
    <_>
      <rect>
        0 4 3 3</rect></_>
    <_>
      <rect>
        0 5 2 4</rect></_>
    <_>
      <rect>
        0 5 5 5</rect></_>
    <_>
      <rect>
        0 7 4 4</rect></_>
    <_>
      <rect>
        0 8 3 5</rect></_>
    <_>
      <rect>
        0 9 3 5</rect></_>
    <_>
      <rect>
        0 9 5 3</rect></_>
    <_>
      <rect>
        0 10 4 3</rect></_>
    <_>
      <rect>
        0 11 2 4</rect></_>
    <_>
      <rect>
        0 13 6 3</rect></_>
    <_>
      <rect>
        0 15 5 3</rect></_>
    <_>
      <rect>
        0 15 7 3</rect></_>
    <_>
      <rect>
        0 17 1 2</rect></_>
    <_>
      <rect>
        0 20 1 1</rect></_>
    <_>
      <rect>
        1 0 3 1</rect></_>
    <_>
      <rect>
        1 0 4 2</rect></_>
    <_>
      <rect>
        1 0 4 3</rect></_>
    <_>
      <rect>
        1 1 5 7</rect></_>
    <_>
      <rect>
        1 2 4 2</rect></_>
    <_>
      <rect>
        1 5 1 1</rect></_>
    <_>
      <rect>
        1 7 4 3</rect></_>
    <_>
      <rect>
        1 7 4 5</rect></_>
    <_>
      <rect>
        1 8 3 3</rect></_>
    <_>
      <rect>
        1 15 4 3</rect></_>
    <_>
      <rect>
        1 15 7 3</rect></_>
    <_>
      <rect>
        2 0 7 8</rect></_>
    <_>
      <rect>
        2 1 3 2</rect></_>
    <_>
      <rect>
        2 1 4 4</rect></_>
    <_>
      <rect>
        2 1 7 5</rect></_>
    <_>
      <rect>
        2 2 4 6</rect></_>
    <_>
      <rect>
        2 2 6 4</rect></_>
    <_>
      <rect>
        2 4 4 4</rect></_>
    <_>
      <rect>
        2 5 5 5</rect></_>
    <_>
      <rect>
        2 5 5 6</rect></_>
    <_>
      <rect>
        2 7 2 3</rect></_>
    <_>
      <rect>
        2 11 4 3</rect></_>
    <_>
      <rect>
        3 0 4 2</rect></_>
    <_>
      <rect>
        3 0 4 6</rect></_>
    <_>
      <rect>
        3 0 7 2</rect></_>
    <_>
      <rect>
        3 1 6 6</rect></_>
    <_>
      <rect>
        3 2 6 3</rect></_>
    <_>
      <rect>
        3 5 1 3</rect></_>
    <_>
      <rect>
        3 5 2 3</rect></_>
    <_>
      <rect>
        3 5 6 6</rect></_>
    <_>
      <rect>
        3 9 5 5</rect></_>
    <_>
      <rect>
        3 12 2 3</rect></_>
    <_>
      <rect>
        3 15 4 2</rect></_>
    <_>
      <rect>
        3 15 4 3</rect></_>
    <_>
      <rect>
        4 0 4 3</rect></_>
    <_>
      <rect>
        4 0 5 2</rect></_>
    <_>
      <rect>
        4 0 6 4</rect></_>
    <_>
      <rect>
        4 2 2 5</rect></_>
    <_>
      <rect>
        4 2 3 2</rect></_>
    <_>
      <rect>
        4 3 1 2</rect></_>
    <_>
      <rect>
        4 5 1 3</rect></_>
    <_>
      <rect>
        4 7 2 3</rect></_>
    <_>
      <rect>
        4 7 3 4</rect></_>
    <_>
      <rect>
        4 8 5 5</rect></_>
    <_>
      <rect>
        4 9 2 3</rect></_>
    <_>
      <rect>
        4 9 3 4</rect></_>
    <_>
      <rect>
        4 12 4 3</rect></_>
    <_>
      <rect>
        4 15 4 3</rect></_>
    <_>
      <rect>
        4 18 4 2</rect></_>
    <_>
      <rect>
        5 0 5 2</rect></_>
    <_>
      <rect>
        5 0 6 5</rect></_>
    <_>
      <rect>
        5 1 3 2</rect></_>
    <_>
      <rect>
        5 1 6 2</rect></_>
    <_>
      <rect>
        5 3 2 5</rect></_>
    <_>
      <rect>
        5 3 3 4</rect></_>
    <_>
      <rect>
        5 3 4 6</rect></_>
    <_>
      <rect>
        5 4 1 2</rect></_>
    <_>
      <rect>
        5 6 2 3</rect></_>
    <_>
      <rect>
        5 7 3 3</rect></_>
    <_>
      <rect>
        5 7 4 4</rect></_>
    <_>
      <rect>
        5 9 3 5</rect></_>
    <_>
      <rect>
        5 13 2 3</rect></_>
    <_>
      <rect>
        5 14 5 3</rect></_>
    <_>
      <rect>
        5 14 6 3</rect></_>
    <_>
      <rect>
        6 0 3 1</rect></_>
    <_>
      <rect>
        6 0 6 2</rect></_>
    <_>
      <rect>
        6 2 4 2</rect></_>
    <_>
      <rect>
        6 4 4 6</rect></_>
    <_>
      <rect>
        6 7 3 3</rect></_>
    <_>
      <rect>
        6 8 4 3</rect></_>
    <_>
      <rect>
        6 10 2 2</rect></_>
    <_>
      <rect>
        6 10 4 4</rect></_>
    <_>
      <rect>
        7 2 2 1</rect></_>
    <_>
      <rect>
        7 2 3 5</rect></_>
    <_>
      <rect>
        7 3 4 2</rect></_>
    <_>
      <rect>
        7 6 4 4</rect></_>
    <_>
      <rect>
        7 14 2 1</rect></_>
    <_>
      <rect>
        7 15 4 3</rect></_>
    <_>
      <rect>
        7 16 1 1</rect></_>
    <_>
      <rect>
        8 0 4 3</rect></_>
    <_>
      <rect>
        8 0 4 5</rect></_>
    <_>
      <rect>
        8 1 1 1</rect></_>
    <_>
      <rect>
        8 1 3 1</rect></_>
    <_>
      <rect>
        8 3 2 2</rect></_>
    <_>
      <rect>
        8 5 3 2</rect></_>
    <_>
      <rect>
        8 5 3 5</rect></_>
    <_>
      <rect>
        8 5 4 6</rect></_>
    <_>
      <rect>
        8 7 2 4</rect></_>
    <_>
      <rect>
        8 9 4 5</rect></_>
    <_>
      <rect>
        8 13 2 2</rect></_>
    <_>
      <rect>
        8 14 1 2</rect></_>
    <_>
      <rect>
        8 15 1 1</rect></_>
    <_>
      <rect>
        8 17 1 2</rect></_>
    <_>
      <rect>
        8 17 4 2</rect></_>
    <_>
      <rect>
        9 0 1 1</rect></_>
    <_>
      <rect>
        9 0 5 3</rect></_>
    <_>
      <rect>
        9 0 5 4</rect></_>
    <_>
      <rect>
        9 2 4 3</rect></_>
    <_>
      <rect>
        9 3 3 6</rect></_>
    <_>
      <rect>
        9 3 5 3</rect></_>
    <_>
      <rect>
        9 4 5 6</rect></_>
    <_>
      <rect>
        9 5 3 4</rect></_>
    <_>
      <rect>
        9 5 4 5</rect></_>
    <_>
      <rect>
        9 6 2 2</rect></_>
    <_>
      <rect>
        9 8 2 3</rect></_>
    <_>
      <rect>
        9 8 2 4</rect></_>
    <_>
      <rect>
        9 9 3 4</rect></_>
    <_>
      <rect>
        9 12 2 2</rect></_>
    <_>
      <rect>
        9 16 1 1</rect></_>
    <_>
      <rect>
        10 1 1 1</rect></_>
    <_>
      <rect>
        10 1 2 1</rect></_>
    <_>
      <rect>
        10 1 3 2</rect></_>
    <_>
      <rect>
        10 1 4 6</rect></_>
    <_>
      <rect>
        10 2 3 4</rect></_>
    <_>
      <rect>
        10 2 3 7</rect></_>
    <_>
      <rect>
        10 4 4 5</rect></_>
    <_>
      <rect>
        10 5 2 5</rect></_>
    <_>
      <rect>
        10 7 2 2</rect></_>
    <_>
      <rect>
        10 8 2 5</rect></_>
    <_>
      <rect>
        10 8 3 5</rect></_>
    <_>
      <rect>
        10 9 3 5</rect></_>
    <_>
      <rect>
        10 9 4 5</rect></_>
    <_>
      <rect>
        10 15 1 1</rect></_>
    <_>
      <rect>
        10 15 2 1</rect></_>
    <_>
      <rect>
        10 16 2 2</rect></_>
    <_>
      <rect>
        11 0 3 2</rect></_>
    <_>
      <rect>
        11 0 4 3</rect></_>
    <_>
      <rect>
        11 2 4 2</rect></_>
    <_>
      <rect>
        11 7 3 4</rect></_>
    <_>
      <rect>
        11 10 2 2</rect></_>
    <_>
      <rect>
        11 10 2 3</rect></_>
    <_>
      <rect>
        11 11 4 4</rect></_>
    <_>
      <rect>
        11 12 2 3</rect></_>
    <_>
      <rect>
        11 14 1 1</rect></_>
    <_>
      <rect>
        11 15 1 1</rect></_>
    <_>
      <rect>
        11 16 1 1</rect></_>
    <_>
      <rect>
        11 17 1 2</rect></_>
    <_>
      <rect>
        11 18 4 2</rect></_>
    <_>
      <rect>
        12 0 4 2</rect></_>
    <_>
      <rect>
        12 0 4 5</rect></_>
    <_>
      <rect>
        12 1 4 2</rect></_>
    <_>
      <rect>
        12 1 4 3</rect></_>
    <_>
      <rect>
        12 2 1 1</rect></_>
    <_>
      <rect>
        12 2 3 3</rect></_>
    <_>
      <rect>
        12 3 2 3</rect></_>
    <_>
      <rect>
        12 3 3 4</rect></_>
    <_>
      <rect>
        12 5 3 6</rect></_>
    <_>
      <rect>
        12 8 3 4</rect></_>
    <_>
      <rect>
        12 8 4 5</rect></_>
    <_>
      <rect>
        12 9 2 3</rect></_>
    <_>
      <rect>
        12 9 3 5</rect></_>
    <_>
      <rect>
        12 15 1 1</rect></_>
    <_>
      <rect>
        13 1 3 6</rect></_>
    <_>
      <rect>
        13 5 2 3</rect></_>
    <_>
      <rect>
        13 8 2 5</rect></_>
    <_>
      <rect>
        13 8 3 4</rect></_>
    <_>
      <rect>
        13 12 2 3</rect></_>
    <_>
      <rect>
        13 16 1 1</rect></_>
    <_>
      <rect>
        14 0 3 2</rect></_>
    <_>
      <rect>
        14 6 3 3</rect></_>
    <_>
      <rect>
        15 0 3 5</rect></_>
    <_>
      <rect>
        15 1 3 3</rect></_>
    <_>
      <rect>
        15 1 3 6</rect></_>
    <_>
      <rect>
        15 2 3 2</rect></_>
    <_>
      <rect>
        15 3 2 3</rect></_>
    <_>
      <rect>
        15 4 2 3</rect></_>
    <_>
      <rect>
        15 8 3 4</rect></_>
    <_>
      <rect>
        15 9 2 4</rect></_>
    <_>
      <rect>
        15 9 3 5</rect></_>
    <_>
      <rect>
        16 4 2 3</rect></_>
    <_>
      <rect>
        16 8 2 4</rect></_>
    <_>
      <rect>
        17 7 2 4</rect></_>
    <_>
      <rect>
        18 0 2 2</rect></_>
    <_>
      <rect>
        18 2 2 5</rect></_>
    <_>
      <rect>
        18 3 2 2</rect></_>
    <_>
      <rect>
        18 7 2 3</rect></_>
    <_>
      <rect>
        18 8 2 5</rect></_>
    <_>
      <rect>
        18 9 2 5</rect></_>
    <_>
      <rect>
        18 12 2 4</rect></_>
    <_>
      <rect>
        18 18 2 2</rect></_>
    <_>
      <rect>
        19 7 1 1</rect></_>
    <_>
      <rect>
        21 0 1 1</rect></_>
    <_>
      <rect>
        21 17 1 2</rect></_>
    <_>
      <rect>
        21 20 1 1</rect></_>
    <_>
      <rect>
        21 21 1 1</rect></_></features></cascade>
</opencv_storage>
